[
    {"levels":[{"inputs":[0.748952423120397,0,0,0.414326840245137,0.2887639532481514],"outputs":[0,0,1,0,0,0],"biases":[-0.16200714356906645,0.09676267386871472,-0.012714430949454111,0.20539536278149303,-0.14477998546775128,0.09406876821663972],"weights":[[-0.27205670451365216,-0.21092513507714522,0.25124716982851686,0.20260317977131895,-0.2572242723967785,-0.08487504262834196],[0.10773517720917114,-0.12544252132958494,-0.1592476613914022,-0.13004633914311073,0.059929781720928214,-0.035960561983134215],[-0.019307575546767333,-0.002766058338315909,-0.07200792475612464,0.009918272346430905,-0.20524527534853518,0.006694740670646738],[-0.1527529101105056,0.3503449572161127,-0.08872227811447603,0.03899758221144932,-0.2371891082537688,-0.03176746751682048],[0.17638617088361233,0.224302724619602,-0.3107587731248572,-0.09685538057420717,-0.22219331149635632,0.16327994309234492]]},{"inputs":[0,0,1,0,0,0],"outputs":[1,1,1,1],"biases":[-0.09087074061737431,-0.05223702923421423,0.05195728548715464,-0.1262622000798253],"weights":[[0.3044517978597603,-0.21263996486675368,-0.08525845461297632,-0.18172688816074647],[0.08110097532454959,0.18830223052733946,-0.2541774711392081,-0.14224613175053022],[-0.038946880503484285,0.035620631640932696,0.2311826441280424,0.06634098932000548],[0.07024636043182093,-0.035735563313114234,-0.038266611782022494,-0.28037005680046506],[-0.10746014604176152,0.05601052661208951,-0.18482095987450659,-0.24233408482413826],[-0.12160917660635956,0.00332841397335456,0.23284307242411964,0.10087268160374314]]}]},
    {"levels":[{"inputs":[0.018765544307281612,0,0,0.5082820838254098,0.18563283873163117],"outputs":[1,1,0,0,0,0],"biases":[-0.15645884714615624,0.09531091098878937,-0.021443204032204923,0.1812733386061801,-0.1361581541838331,0.09139027252329429],"weights":[[-0.26553461640045967,-0.20771158069393764,0.236590715474549,0.18511737068441472,-0.240784801404169,-0.09117818160209722],[0.10887343540951042,-0.12673493006151776,-0.16946044967260965,-0.11676683793559876,0.06181019242618022,-0.02854474999998747],[-0.005872588743964286,-0.021197668433610664,-0.06604036781555198,0.014443891292729945,-0.18007981152038027,-0.00633271830384131],[-0.15943782498798992,0.3296203749390348,-0.07473717260079224,0.02824427712056169,-0.23511828844213234,-0.028505787873961335],[0.16311446923997236,0.20266763753237266,-0.30931904209679334,-0.07524589348377062,-0.20398655647139585,0.16430515639126414]]},{"inputs":[1,1,0,0,0,0],"outputs":[1,1,0,0],"biases":[-0.10356682194938643,-0.0422300259232996,0.048400007229343095,-0.1114461279711861],"weights":[[0.2991151449992735,-0.20887734600787272,-0.07766968695056214,-0.16806613216253796],[0.06244740268484162,0.19124453965721727,-0.257546505469193,-0.13185081469088422],[-0.03193345833700288,0.031369991605642376,0.2149219889416385,0.06005584580637524],[0.06025277819288649,-0.041958471407598744,-0.03965555577270607,-0.2745117050348681],[-0.08069376331566863,0.05911856465580809,-0.17680228169132953,-0.24530017578450483],[-0.11664619847994094,-0.0028969839757426465,0.21920326095153608,0.0863489290708304]]}]},
    {"levels":[{"inputs":[0.8274623232142855,0,0,0,0],"outputs":[0,0,1,0,0,0],"biases":[-0.17257504671928808,0.09701873607558963,0.001818665605306562,0.2092794429191569,-0.15623635699295393,0.1007163601040972],"weights":[[-0.29340881482671843,-0.21760907221937884,0.268493565666256,0.20491287051126117,-0.246921772912467,-0.0792497357304388],[0.10262237932706127,-0.12206862997942255,-0.159677375544094,-0.13652128548700937,0.052515526722997835,-0.034351810174387196],[-0.023112871094383588,0.005493633733536541,-0.0820561371904751,0.023174999532617136,-0.21411152687209373,0.016016804704632518],[-0.15068523718942195,0.36131504620160676,-0.0792326701200954,0.03624985335581659,-0.24614437307597958,-0.0395165490475482],[0.16976132359853668,0.2396513175558909,-0.3201509288760282,-0.09646404637726642,-0.2251824093079899,0.1576909924167654]]},{"inputs":[0,0,1,0,0,0],"outputs":[1,1,1,1],"biases":[-0.09431125604391923,-0.049522114423887605,0.04709812332730828,-0.14011195709806004],"weights":[[0.3124045625829989,-0.2244362341396211,-0.09918609569923996,-0.19125107627833515],[0.07694839638512878,0.1965800915621927,-0.2699284344273175,-0.13192552177096112],[-0.030206733315050596,0.045834873967411004,0.25307864531436647,0.06411765773301688],[0.07589914738029663,-0.044879360272579924,-0.04975357630224171,-0.28684296883992294],[-0.1092630731942966,0.06133312409446491,-0.17625880868327598,-0.2351991796860838],[-0.1131166999705494,-0.004988571847433371,0.2351333330074934,0.1141995828093427]]}]},
    {"levels":[{"inputs":[0.7089215474890997,0.4290290766695166,0,0,0],"outputs":[1,0,1,0,1,0],"biases":[-0.17561411833569712,0.11240419696617442,0.010341135074279504,0.24813847731129074,-0.15490448143871166,0.15321634538315304],"weights":[[-0.26555914971770117,-0.18666678155141223,0.2631855267350959,0.2087811789421315,-0.21230488396209432,-0.05829664221818039],[0.1189794639616599,-0.08979273314888664,-0.16560356001957127,-0.13837487568791149,-0.000829395842849974,0.01589102859100182],[-0.0715383579979062,-0.0394839823898072,-0.046371333680643875,0.06923776982113004,-0.24636519142933955,0.013558847876874374],[-0.11085321013070223,0.34166886905072363,-0.029922990815652112,0.07864792015956532,-0.2933828027526981,-0.051952691135098414],[0.13883269358793962,0.21263384517722936,-0.3473165853294884,-0.05205799408044089,-0.24278965197882002,0.21036570006282676]]},{"inputs":[1,0,1,0,1,0],"outputs":[1,0,0,0],"biases":[-0.06295437760851608,-0.06792062551816229,0.0029577851125211566,-0.1797992890496673],"weights":[[0.3078651107644235,-0.21581703692002874,-0.1643859574110908,-0.2009282213195097],[0.08449100763809794,0.22577479084675783,-0.29839417419904335,-0.1745996571239158],[0.009170609928938846,0.07684000990103135,0.22655418750494302,0.1290164874184276],[0.0977915728467202,-0.05949677909127723,-0.0288672684864398,-0.324720490618209],[-0.15007254987454297,0.04726896364111575,-0.20760841851486583,-0.26059716335089655],[-0.13853541611849682,0.02150451416641061,0.20975330164104738,0.06224968034629373]]}]}
]





