{"levels":[{"inputs":[0.5645481358819069,0.3577285558586375,0.17539525119175114,0.019044851099264126,0],"outputs":[1,0,1,0,1,0],"biases":[-0.20009708689437863,-0.10633984393284464,-0.17901435025711696,0.07189080170951648,-0.1748866917093468,0.18589188901105086],"weights":[[-0.028951664806698203,-0.27851271267282657,0.22084393042166844,-0.0007334632110215494,-0.20198616484283277,-0.23832949546961224],[0.09744877384330265,-0.04753994758618212,-0.1407421103746278,-0.18461727395427968,-0.11390970580361243,0.056990375167298456],[0.03593660208824873,0.050173210736313846,-0.011974208149948134,0.1155672980499893,-0.08180077993074286,0.0722153028743196],[0.04237701821265598,0.25091653975437767,-0.0698263832892018,0.021481027827203424,-0.2587711028628448,-0.0494181107919804],[-0.058920457794580924,0.06257245900651581,-0.31653472913484454,-0.07885770569428042,-0.09003999180356846,0.06749887596668222]]},{"inputs":[1,0,1,0,1,0],"outputs":[1,0,0,0],"biases":[-0.14122643590623604,-0.02285452070504008,-0.025837282690428322,0.015318953859211965],"weights":[[0.4805961169260399,-0.070386702641097,0.06451144536434339,-0.3099854488145601],[0.1484560593688209,0.08905863724622827,-0.1347953354836591,0.0868413016096811],[-0.06381506540010487,-0.13432805282897867,0.07259828862517935,0.2560487930886977],[0.05286180603661226,0.07465499533703128,0.00996082568082549,-0.36242038195862564],[0.05423902540427401,0.0066579775514288425,-0.24008365095059075,-0.12717283253895875],[0.0612349573728954,-0.021760977878442663,0.18096278097435617,-0.021232116744876815]]}]}