{"levels":[{"inputs":[0.09974958484029506,0,0,0,0],"outputs":[1,0,1,1,1,0],"biases":[-0.007882481982652734,0.21738956363944906,-0.2311010369814128,-0.17916836865368294,-0.4129234791246684,0.22527794580621144],"weights":[[-0.05530028971073343,-0.13310223754441228,0.13242782118339835,-0.2253220143810315,-0.2027335237124259,0.052498133011611214],[0.03575937037256348,0.1087689804662221,0.022989169198141673,-0.2779465198504236,-0.05689059338542704,0.12048951425147161],[-0.23765541249898386,0.2120489540641343,0.15693537881560868,-0.005357577469062846,0.15945071500889252,-0.16400342118464192],[-0.007628777807949523,-0.059298432333338036,-0.30232538788418695,0.017794442423376005,-0.36242461391662045,0.22657101069209828],[0.2122316083452011,0.3367663336678513,-0.1032380854978639,-0.30547797896658385,-0.3324229313909315,0.11011085600586504]]},{"inputs":[1,0,1,1,1,0],"outputs":[1,1,1,0],"biases":[0.062053551045114924,0.06149271636264493,-0.015601577564116866,0.21812811071445315],"weights":[[0.32806368576616773,0.10748754865190172,0.0639903072341221,-0.08035560701940608],[0.2831494128419604,0.2835974587891001,0.0008372107738630341,-0.12367334658661132],[0.15826220650951983,-0.056967766378940674,-0.13067837961928763,-0.028821580659303736],[-0.017545152564472956,-0.12907826261875122,0.2470958524583076,-0.5276364421288091],[-0.05482548609477392,0.14711234630978515,0.03932531959061536,-0.34737187105710116],[0.04924305440424627,0.07945293221147988,0.0334564378703843,-0.11709208051014697]]}]}
