{"levels":[{"inputs":[0.3112044632475587,0.19329794121151622,0.027325411430140223,0,0],"outputs":[1,0,1,0,1,0],"biases":[-0.22262721001014682,0.11748328568820633,-0.0037936969410271304,0.15264298335749196,-0.11485844294888331,0.2090722073289871],"weights":[[-0.271561303423801,-0.25321338471954785,0.2086827602982116,0.10654387791278784,-0.16337601893981435,-0.14948994332331422],[0.05872664912398197,-0.10919252452596268,-0.0908921778924047,-0.18558175846028102,-0.005575884211586858,0.027345513664749202],[-0.017131848989390762,0.04621375093663893,-0.04764867089859828,0.1509747926677805,-0.2532479326060449,0.0968682096131908],[-0.001484499659413524,0.38238066818933625,-0.022352408495910796,0.04401836550431681,-0.2737813503843207,-0.03140175369471036],[0.11840905788875564,0.14858877858584785,-0.36750895487905727,-0.07031460401664248,-0.24062552778888888,0.14839513997339143]]},{"inputs":[1,0,1,0,1,0],"outputs":[1,0,0,0],"biases":[-0.05435276879774328,-0.12111021879957987,0.003135395726161539,-0.20012517446991246],"weights":[[0.3609881388689476,-0.23372150317555615,-0.17680547790834236,-0.2727245255725456],[0.13603001884956448,0.19677342709627146,-0.1777952692850887,-0.1104003370486122],[0.027559040989565374,0.02049200219839517,0.22945157910490574,0.21449222362699188],[0.1519124776023112,-0.05686174174222311,0.027785811454940815,-0.30618150505494235],[-0.041915132858171375,0.029808209430348356,-0.1876375045694357,-0.18093169152056843],[-0.1809601454418091,0.05382931882532887,0.26509159766749807,-0.012836234295450638]]}]}