{"levels":[{"inputs":[0.08777873238526146,0,0,0,0],"outputs":[1,1,1,0,1,0],"biases":[-0.1971965869130376,-0.0999227348196213,-0.17671229903147076,0.08702690987783364,-0.18177370968275258,0.176238914840715],"weights":[[-0.04506482080729879,-0.29887664271033354,0.21968373474068195,-0.015877598639148824,-0.19388811843532,-0.263410307281561],[0.08243047560806345,-0.052979995525204715,-0.15741076158354705,-0.2014305721825056,-0.10324741044319172,0.03932173834878454],[0.04734530034971947,0.06125022875822328,-0.02727432880455639,0.1040570583109261,-0.09587560466310335,0.08374021960649287],[0.03483423852964788,0.24384553778612036,-0.07227065357297988,0.011148731984061798,-0.27049125378569716,-0.06422727716324439],[-0.05742172939297944,0.07783977710262499,-0.30381149693416865,-0.09516300901416648,-0.10411041653025889,0.07730851115164239]]},{"inputs":[1,1,1,0,1,0],"outputs":[1,0,0,0],"biases":[-0.12933280838237537,-0.019017032352195328,-0.03348896899367797,0.01081725527321957],"weights":[[0.4728642213144639,-0.08512751686574996,0.07755761239825427,-0.31479805314612314],[0.15578375234565697,0.091874814390521,-0.1332276522059562,0.08131140813183098],[-0.06560143455752454,-0.13125078031513415,0.06358721147760459,0.24448508746308448],[0.07042545087090504,0.06339613561042229,0.025135630808630585,-0.38544673265218654],[0.042576524233554625,-0.006891782532916432,-0.25216350853628744,-0.13676436326980884],[0.0513715079105672,-0.025577892713321025,0.17155460135931316,-0.03260748733181353]]}]}