{"levels":[{"inputs":[0,0,0,0.027598852270550145,0.4586840400002141],"outputs":[1,1,1,0,1,0],"biases":[-0.1696642106766169,-0.09055770602804053,-0.16087764337574426,0.0467652451325968,-0.1485622863219439,0.16221766533099694],"weights":[[-0.048896892554811985,-0.2599242708493543,0.2131454038255983,-0.016629579667847595,-0.21591631965955352,-0.23698750648252195],[0.08234110125814824,-0.038452731669311895,-0.15008971939842056,-0.19293217250389946,-0.1311929238119453,0.07820974941302766],[0.03021296863422128,0.021016367678443598,-0.0074334470667427755,0.12334190744915524,-0.09988500298097389,0.09442441706597404],[0.05852749541346511,0.2607358072470033,-0.09158814232356442,0.030181622201121062,-0.22816450072432912,-0.02827755049975714],[-0.06346820894780067,0.05530702236490796,-0.335973577935303,-0.0852273649523735,-0.10009607423140857,0.08600037628371755]]},{"inputs":[1,1,1,0,1,0],"outputs":[1,0,0,0],"biases":[-0.15895918771728795,-0.03683567299761502,-0.047637290071240415,-0.0029777352757843906],"weights":[[0.46040865053607477,-0.081288911444906,0.045669533071525215,-0.3044843591478386],[0.1444544716928952,0.06802339220215055,-0.13977429536085761,0.09949834710525816],[-0.08773756317788212,-0.15105655070639767,0.054150510288595965,0.271040702886789],[0.07887163665635269,0.08481998857742774,0.03231243893467146,-0.3597105199910315],[0.06754442472258593,0.03569025066344962,-0.22295364108252538,-0.13166930978573899],[0.06549166883012313,0.0031880439498501376,0.19856449842246446,-0.04679491304499456]]}]}