{"levels":[{"inputs":[0.5738110998314554,0.1300196475511859,0,0,0],"outputs":[1,0,1,0,1,0],"biases":[-0.15018379640175236,-0.08848441892006495,-0.16500585028942408,0.060621962720484014,-0.1458520101487572,0.1370823278274923],"weights":[[0.009401242885230466,-0.2582023951821992,0.2138628844922895,-0.04253164157200953,-0.19147840429628019,-0.22931086666261222],[0.08625640470777844,-0.0697568123060932,-0.1345801024794627,-0.1380042938552543,-0.06294348865632415,0.06258577206446546],[0.08178709501639408,0.05742837084831814,-0.016451080088569367,0.08799229273078596,-0.07736306994095857,0.08290410205286344],[0.00246902357958435,0.20671709446732803,-0.08210612059421889,0.06181118006636746,-0.23548811415202192,-0.07611661550738334],[-0.0850816136040758,0.02558868670942912,-0.28119849017792425,-0.06741058972717498,-0.05562739667315119,-0.011167094143287521]]},{"inputs":[1,0,1,0,1,0],"outputs":[1,0,0,0],"biases":[-0.0939307956650116,-0.0005518746845131904,0.03962655826786512,0.023082878637287627],"weights":[[0.3850417598855575,-0.010486330307069788,0.10100023814092626,-0.316595484790257],[0.10323237802928607,0.07890177651483085,-0.11184507442133415,0.08004925400925919],[-0.04329119656743296,-0.14917354226816504,0.09279175142749482,0.2959574523005335],[0.004478090463263584,0.10657867846433117,-0.011868114168303728,-0.29236387645502726],[0.08705375872901117,0.06012783454138357,-0.23296366547485597,-0.1842733166059513],[0.12669920588757916,-0.012375490190485165,0.13333942758759487,0.040159051539040466]]}]}