{"levels":[{"inputs":[0.24018711228506773,0.012995936144642117,0,0,0],"outputs":[1,1,1,0,1,0],"biases":[-0.13748672729881603,-0.061876636506850574,-0.12919869035455145,0.04035678773793952,-0.15894797249517764,0.15515863745598518],"weights":[[-0.030394401293816632,-0.2441445910859434,0.19322775564252884,-0.020213018328831395,-0.19635385230065694,-0.2085484212170894],[0.09160147273167663,-0.041598384080471514,-0.1693330460935073,-0.20767610568215258,-0.15146665162027526,0.06953118412440185],[0.03772176850358915,0.014580581453894762,-0.009490356002837992,0.0942412462971188,-0.07341802986260616,0.08915228023489535],[0.059349651252471713,0.2618360808494286,-0.10229831474913617,0.028526681470209456,-0.2284001054257353,-0.04404925332424378],[-0.05529585739294127,0.07980079574985827,-0.32713348728231967,-0.09879820625724006,-0.08423208831041915,0.11018220310842082]]},{"inputs":[1,1,1,0,1,0],"outputs":[1,0,0,0],"biases":[-0.16234496723556355,-0.06483238797038338,-0.06275657557017084,0.003183093736546543],"weights":[[0.45611268631264096,-0.05554299047310479,0.0556336386531056,-0.3208635696324945],[0.14302605623871587,0.03785544818264499,-0.1365613181369301,0.12295123834677851],[-0.07844405161830714,-0.16431531974953775,0.07753647693550178,0.2886027625154116],[0.050906857434958624,0.06139678660001813,0.012506388352527018,-0.32868628422909213],[0.08271294295376025,0.04558370325686177,-0.18700512427247842,-0.12018821386754555],[0.037525859366607864,0.02600030994627863,0.17148990816209336,-0.03627503372343249]]}]}